<?xml version="1.0"?>
<opencv_storage>
<opencv_ml_knn>
  <format>3</format>
  <is_classifier>1</is_classifier>
  <default_k>3</default_k>
  <samples type_id="opencv-matrix">
    <rows>277</rows>
    <cols>7</cols>
    <dt>f</dt>
    <data>
      -7.12101698e-01 -2.38821125e+00 -2.82751203e+00 -5.36935759e+00
      -9.45673847e+00 7.45821095e+00 -9.47891617e+00 -7.33156204e-01
      -2.29777241e+00 -3.39662910e+00 -4.55851316e+00 -8.94525719e+00
      -6.00696421e+00 8.54973316e+00 -7.53169596e-01 -2.46181011e+00
      -5.67608738e+00 -7.43272018e+00 9.99997902e+00 9.92415047e+00
      -9.99996090e+00 -7.28418648e-01 -2.27447367e+00 -3.34434009e+00
      -5.66727114e+00 -9.95990944e+00 -8.24666405e+00 9.77877903e+00
      -6.21487617e-01 -2.35506654e+00 -2.89534783e+00 -3.86988139e+00
      -7.57269526e+00 -5.90156603e+00 -7.30757141e+00 -7.29446590e-01
      -2.31228995e+00 -3.87513876e+00 -4.75639439e+00 -9.05147457e+00
      6.90043402e+00 9.38748837e+00 -7.39503801e-01 -2.25133610e+00
      -5.55663919e+00 -6.76954174e+00 -9.99999142e+00 7.97298574e+00
      9.99949360e+00 -7.65182674e-01 -2.76713061e+00 -10. -10. -10. -10.
      -10. -7.34388649e-01 -2.79335833e+00 -5.17104912e+00
      -4.63048553e+00 -9.48705292e+00 -6.11893034e+00 -9.53954983e+00
      -6.50011957e-01 -2.16359544e+00 -2.66873074e+00 -4.22176313e+00
      -7.72172499e+00 -5.31420565e+00 -7.98112249e+00 -5.78624904e-01
      -1.38996255e+00 -3.08296514e+00 -3.81944299e+00 -7.27467775e+00
      -4.52230406e+00 8.09323406e+00 -6.67938530e-01 -2.11194539e+00
      -2.89062309e+00 -3.62879992e+00 6.90052891e+00 4.74968719e+00
      -7.51555634e+00 -6.60993636e-01 -1.92291725e+00 -2.88219190e+00
      -3.75944686e+00 -7.14512014e+00 -4.73083591e+00 -7.37153912e+00
      -6.59851313e-01 -1.89474189e+00 -2.70580220e+00 -3.10958052e+00
      -6.03851175e+00 -4.11943007e+00 6.53199911e+00 -5.64542413e-01
      -2.53321457e+00 -2.09785485e+00 -3.89997721e+00 7.82752943e+00
      5.54102850e+00 6.90154362e+00 -5.08532465e-01 -1.26697254e+00
      -2.10922074e+00 -2.52796912e+00 -4.84858274e+00 -3.18304372e+00
      -5.86303091e+00 -6.17887020e-01 -1.79160416e+00 -2.89480519e+00
      -4.55274487e+00 -8.30136871e+00 7.97447157e+00 -8.67700005e+00
      -5.16290665e-01 -1.27664125e+00 -2.55469799e+00 -3.14716887e+00
      -5.99875021e+00 -3.78779984e+00 7.24627495e+00 -6.77772701e-01
      -2.26289368e+00 -2.69815612e+00 -3.82986164e+00 -7.10462809e+00
      -4.97929001e+00 7.73875999e+00 -6.38076544e-01 -2.04209471e+00
      -2.49448562e+00 -3.09401083e+00 -5.93579865e+00 -4.14241743e+00
      6.24121618e+00 -6.93109632e-01 -2.42670631e+00 -2.73680902e+00
      -4.09798241e+00 7.99990702e+00 -5.35386324e+00 -7.53802586e+00
      -6.47316337e-01 -1.72419012e+00 -3.06878662e+00 -3.89417624e+00
      -7.37723827e+00 -4.80313349e+00 8.32717228e+00 -4.96868640e-01
      -1.76838434e+00 -2.13677883e+00 -3.03408194e+00 -6.60573387e+00
      4.19300604e+00 -5.62181854e+00 -5.26111305e-01 -1.30986309e+00
      -3.24978209e+00 -3.36386085e+00 -6.79984903e+00 -4.15078735e+00
      6.84423542e+00 -5.87734640e-01 -1.82993662e+00 -2.83973503e+00
      -3.74878335e+00 7.46276188e+00 -5.01713181e+00 7.07626057e+00
      -5.32013953e-01 -1.87316263e+00 -2.21622562e+00 -3.47052765e+00
      6.67576694e+00 4.59863710e+00 6.35922480e+00 -6.18101478e-01
      -1.90564883e+00 -3.21139526e+00 -4.10012960e+00 7.98111582e+00
      5.12037373e+00 7.84561253e+00 -4.89013314e-01 -1.90743828e+00
      -1.85735881e+00 -3.43652034e+00 8.29065609e+00 4.69240427e+00
      -6.08341551e+00 -6.98054790e-01 -3.23577976e+00 -3.39737678e+00
      -3.40994763e+00 -6.88443184e+00 -5.03912830e+00 -7.08995724e+00
      -3.89202625e-01 -1.07632816e+00 -1.33637393e+00 -1.56137514e+00
      -3.02191758e+00 -2.13260746e+00 -3.65093803e+00 -3.80695254e-01
      -9.17238355e-01 -1.77844632e+00 -2.09663010e+00 -4.04176617e+00
      -2.56728101e+00 4.76596975e+00 -5.57948589e-01 -1.41245890e+00
      -2.35226870e+00 -2.64625645e+00 -5.14569712e+00 -3.35522938e+00
      6.68101931e+00 -6.32665396e-01 -2.10880589e+00 -2.23196769e+00
      -2.81087613e+00 -5.35178518e+00 -3.88532996e+00 5.86533880e+00
      -6.82627916e-01 -3.27946424e+00 -4.70936394e+00 -4.76496363e+00
      9.43084908e+00 6.55182076e+00 -9.58458519e+00 -6.59987509e-01
      -1.76154387e+00 -3.12924719e+00 -3.98244262e+00 -7.56166697e+00
      -4.88575363e+00 8.01583767e+00 -6.64630711e-01 -1.79521298e+00
      -3.12892056e+00 -3.85405016e+00 -7.35974073e+00 -4.76507425e+00
      7.92685747e+00 -7.36845195e-01 -4.57379293e+00 -4.11617661e+00
      -4.56003046e+00 -8.90095234e+00 7.22068214e+00 -9.21346664e+00
      -6.11296654e-01 -1.97209907e+00 -2.34049797e+00 -2.62256551e+00
      -5.10533381e+00 -3.61836076e+00 -6.22589493e+00 -7.46399820e-01
      -3.95048022e+00 -4.80044556e+00 -4.70344210e+00 -9.41598415e+00
      6.72784567e+00 -9.51471996e+00 -4.36690241e-01 -1.74630249e+00
      -2.23440385e+00 -3.59869409e+00 6.68583727e+00 -4.47458315e+00
      -6.64701080e+00 -5.44073582e-01 -1.52882874e+00 -2.15313792e+00
      -3.16260409e+00 -6.27601576e+00 -5.30074549e+00 -5.84886456e+00
      -5.44824541e-01 -1.51705551e+00 -2.68821096e+00 -3.78709126e+00
      -7.22373915e+00 -4.58244848e+00 7.13457394e+00 -3.95571351e-01
      -9.66668904e-01 -3.23596215e+00 -4.04386139e+00 7.80725527e+00
      4.57426739e+00 7.85843134e+00 -7.60451794e-01 -2.58257890e+00
      -4.06322718e+00 -5.64413500e+00 9.88745499e+00 7.09450579e+00
      -9.95228386e+00 -5.90611875e-01 -1.62661612e+00 -2.40679812e+00
      -3.41555524e+00 -6.67133522e+00 -4.48058414e+00 6.37626934e+00
      -4.33805645e-01 -1.18408155e+00 -1.67120349e+00 -2.29936385e+00
      -4.31286573e+00 -2.93780446e+00 -4.74170828e+00 -5.61058342e-01
      -1.60757852e+00 -2.87283754e+00 -5.65072012e+00 9.66820240e+00
      6.96919870e+00 -9.84611320e+00 -3.66337389e-01 -8.78572643e-01
      -2.10714602e+00 -2.56241202e+00 -4.90246487e+00 -3.00226259e+00
      5.70697355e+00 -5.93834043e-01 -1.73784101e+00 -2.04815173e+00
      -2.57706523e+00 -4.90266705e+00 -3.53640127e+00 -5.50758982e+00
      -6.56466603e-01 -2.43823147e+00 -2.40874720e+00 -3.55290532e+00
      -6.71513844e+00 -5.25576830e+00 6.65683794e+00 -6.03315413e-01
      -1.79849970e+00 -2.17685390e+00 -2.86443567e+00 -5.38572550e+00
      -3.76396346e+00 -6.64532614e+00 -3.61776888e-01 -8.67400527e-01
      -2.15472221e+00 -2.59483528e+00 -4.98955297e+00 -3.03939223e+00
      5.49797535e+00 -6.21995151e-01 -1.72797632e+00 -2.82287192e+00
      -3.85626769e+00 -7.27023411e+00 -4.72464752e+00 7.46134996e+00
      -4.49532121e-01 -1.09244812e+00 -2.24442506e+00 -2.62316227e+00
      -5.07748890e+00 -3.22341561e+00 5.57922077e+00 -7.39797056e-01
      -2.64532638e+00 -3.01811242e+00 -4.57414198e+00 8.36033821e+00
      5.92517042e+00 9.68194771e+00 -7.49439299e-01 -2.40416098e+00
      -4.77501917e+00 -7.17753029e+00 9.99991512e+00 -8.50578403e+00
      9.99970818e+00 -6.01122320e-01 -1.88455236e+00 -4.58194256e+00
      -3.73887873e+00 -8.55626869e+00 -4.78605604e+00 7.90580177e+00
      -5.84684253e-01 -2.18891501e+00 -3.33868814e+00 -4.03870821e+00
      -9.56692314e+00 5.48789501e+00 -7.72511244e+00 -5.94363749e-01
      -1.69489515e+00 -2.48964810e+00 -3.57079458e+00 -6.60090208e+00
      -4.44802189e+00 -8.37334728e+00 -6.28990531e-01 -1.86976981e+00
      -2.75737715e+00 -4.05761385e+00 -7.48981476e+00 -5.12732077e+00
      -7.93473864e+00 -4.93562460e-01 -1.27101541e+00 -2.28448462e+00
      -2.97723675e+00 -5.60873461e+00 -3.62290478e+00 -6.86849642e+00
      -6.89767122e-01 -2.48260212e+00 -2.82603621e+00 -3.68555069e+00
      -7.37522888e+00 -5.06068277e+00 -6.97241592e+00 -6.51261985e-01
      -2.13108492e+00 -3.05031729e+00 -3.49505854e+00 -6.85956717e+00
      -4.58953476e+00 6.99791956e+00 -4.30721432e-01 -1.29202664e+00
      -1.64586830e+00 -2.62517762e+00 -4.76324844e+00 -3.28474450e+00
      -5.72702169e+00 -5.23495555e-01 -1.65614283e+00 -2.43844128e+00
      -4.74080658e+00 8.39088249e+00 -5.58467436e+00 -8.58980656e+00
      -6.59554720e-01 -2.28016424e+00 -3.12495112e+00 -4.92413616e+00
      8.93308258e+00 -6.29898405e+00 9.33808422e+00 -4.99439329e-01
      -1.40750718e+00 -2.23867822e+00 -3.04685807e+00 -5.87606573e+00
      -4.35669708e+00 5.80927324e+00 -7.12368309e-01 -2.32860970e+00
      -4.62820721e+00 -4.48458385e+00 9.07891464e+00 5.88367462e+00
      -9.19515610e+00 -6.86443210e-01 -3.39456487e+00 -2.80916476e+00
      -3.54269791e+00 -7.51351070e+00 5.29585266e+00 6.72401953e+00
      -6.95674479e-01 -2.45573711e+00 -2.92235136e+00 -3.92560768e+00
      8.29869556e+00 5.27635479e+00 -7.35126448e+00 -5.91919541e-01
      -2.12379599e+00 -2.03412032e+00 -2.47920799e+00 -4.75315094e+00
      -3.67113042e+00 -5.29403448e+00 -7.50571728e-01 -3.17108965e+00
      -4.22136641e+00 -4.99022150e+00 -9.65674686e+00 6.75596523e+00
      -9.49070168e+00 -6.73156917e-01 -2.44753027e+00 -2.42458034e+00
      -5.40201855e+00 -9.76216602e+00 6.63836813e+00 -9.23786640e+00
      -6.79180801e-01 -2.81762457e+00 -2.53664327e+00 -4.02304125e+00
      7.70192957e+00 -5.89642859e+00 -7.33917236e+00 -5.16885221e-01
      -1.27002168e+00 -2.36042500e+00 -2.88598490e+00 -5.50934887e+00
      -3.52613688e+00 -7.05818319e+00 -7.03768909e-01 -2.17425108e+00
      -3.28745627e+00 -4.68039465e+00 -8.69995022e+00 -5.80280447e+00
      8.93991947e+00 -7.02541292e-01 -2.43930602e+00 -4.20328617e+00
      -4.24355841e+00 8.92373943e+00 5.55927324e+00 8.47721386e+00
      -4.56705958e-01 -3.33102894e+00 -2.79260063e+00 -2.33280492e+00
      -4.97863102e+00 4.25666714e+00 -5.14424562e+00 -6.86476231e-01
      -2.56002045e+00 -3.57806611e+00 -3.29226661e+00 -6.91364193e+00
      -4.59875679e+00 6.84673500e+00 -7.24219143e-01 -2.74637389e+00
      -3.42846799e+00 -4.16344309e+00 7.97849464e+00 6.17846727e+00
      -8.44386196e+00 -6.48400903e-01 -1.76165330e+00 -3.41325116e+00
      -3.95668411e+00 -7.94364119e+00 -4.98796654e+00 7.70036411e+00
      -7.05918550e-01 -2.34684777e+00 -3.14257860e+00 -3.75495553e+00
      -7.22538090e+00 -4.93655682e+00 -7.70597458e+00 -6.18382752e-01
      -1.68268299e+00 -3.14223886e+00 -3.29437542e+00 -6.54796267e+00
      -4.15098047e+00 -6.92346334e+00 -6.49546564e-01 -1.70791078e+00
      -3.50626183e+00 -4.15768003e+00 -8.14165020e+00 -5.17044878e+00
      8.12701893e+00 -6.86841846e-01 -2.25415444e+00 -3.29651284e+00
      -3.88929343e+00 7.61350012e+00 5.02236032e+00 -7.64971542e+00
      -6.57921195e-01 -2.07572222e+00 -2.46624351e+00 -3.59928727e+00
      6.64410305e+00 4.63732767e+00 7.26181173e+00 -6.04373515e-01
      -1.55893362e+00 -2.84897900e+00 -3.83796525e+00 -7.46723318e+00
      -4.94152355e+00 7.24799728e+00 -6.82882667e-01 -1.88418889e+00
      -4.32324457e+00 -4.96060753e+00 -9.50860310e+00 -6.19262123e+00
      -9.62874985e+00 -6.42206669e-01 -1.88938379e+00 -3.01264691e+00
      -4.32916784e+00 8.23255825e+00 -5.32455158e+00 -8.08214474e+00
      -6.79745972e-01 -1.92812622e+00 -3.27767348e+00 -3.94427991e+00
      -7.73677111e+00 -5.24549532e+00 7.67479229e+00 -6.02818668e-01
      -1.63607013e+00 -2.94755149e+00 -5.22560501e+00 9.86399078e+00
      6.05511093e+00 9.23216152e+00 -6.83220983e-01 -2.05147910e+00
      -3.07375288e+00 -4.27031660e+00 7.95742750e+00 5.33565903e+00
      -8.46751881e+00 -7.36473322e-01 -2.50514913e+00 -4.45908356e+00
      -5.08898354e+00 -9.68550110e+00 -6.72615814e+00 9.72920036e+00
      -6.41861916e-01 -1.79012167e+00 -4.40525866e+00 -3.86967087e+00
      -8.04528713e+00 -4.77312613e+00 -8.36964226e+00 -5.42121530e-01
      -1.34069824e+00 -2.54891896e+00 -3.12489796e+00 -6.12158537e+00
      -4.21091318e+00 6.10332870e+00 -5.40278852e-01 -1.37316251e+00
      -2.15455914e+00 -2.63017607e+00 -5.04904270e+00 -3.35933709e+00
      5.49236822e+00 -7.11916566e-01 -2.21444345e+00 -4.17487001e+00
      -4.49600267e+00 8.83139896e+00 -5.63447142e+00 -9.19836521e+00
      -6.52119339e-01 -1.89156640e+00 -2.71423483e+00 -3.67939091e+00
      -6.88190508e+00 -4.88278437e+00 -7.65538931e+00 -5.92787802e-01
      -1.67384470e+00 -2.12658763e+00 -2.90194798e+00 -5.42942810e+00
      -3.75181746e+00 -6.03044653e+00 -6.23646855e-01 -2.34055471e+00
      -2.28796697e+00 -4.89154148e+00 8.50343704e+00 6.06190920e+00
      8.85581303e+00 -5.87865591e-01 -1.54196465e+00 -2.64971375e+00
      -3.81531477e+00 -7.17613935e+00 -4.89451838e+00 -7.22155094e+00
      -7.09819555e-01 -2.03969026e+00 -4.15335751e+00 -5.32809782e+00
      -9.79239559e+00 -6.57556057e+00 9.79754639e+00 -6.48750424e-01
      -1.73957586e+00 -3.08677268e+00 -4.18351746e+00 -8.08097839e+00
      5.63357687e+00 7.89014959e+00 -6.30194247e-01 -1.86751473e+00
      -2.31766772e+00 -3.07944179e+00 -5.78202200e+00 -4.01572943e+00
      -6.64439440e+00 -6.16606057e-01 -1.73941624e+00 -3.55173421e+00
      -4.27706909e+00 -8.31708717e+00 -5.82165956e+00 -8.34920311e+00
      -6.73614144e-01 -1.81984615e+00 -2.96996355e+00 -3.79386306e+00
      -7.17798376e+00 -4.70968437e+00 8.11160183e+00 -6.51274979e-01
      -3.72161245e+00 -2.34766006e+00 -3.81296778e+00 6.91546345e+00
      5.71113396e+00 -7.39528561e+00 -6.84157252e-01 -1.99181914e+00
      -3.57084322e+00 -4.61023045e+00 8.79961205e+00 5.92593622e+00
      -8.84592819e+00 -6.12293780e-01 -1.70811129e+00 -3.02916670e+00
      -3.91049147e+00 -7.58829260e+00 -6.28193283e+00 -7.48307896e+00
      -6.60252094e-01 -2.01811266e+00 -2.96228623e+00 -4.32377958e+00
      -8.19847393e+00 -5.43079424e+00 -8.04995346e+00 -6.18754566e-01
      -1.58764434e+00 -3.68077922e+00 -4.28650665e+00 -8.71240902e+00
      -5.51610613e+00 8.28873062e+00 -4.27252144e-01 -1.15463710e+00
      -2.52120495e+00 -3.37452888e+00 6.74366903e+00 5.12730408e+00
      -6.35594368e+00 -7.13322401e-01 -2.50324035e+00 -2.80646682e+00
      -3.87829995e+00 -7.64004040e+00 -5.44820404e+00 7.25359392e+00
      -7.11751997e-01 -2.24400544e+00 -4.38043451e+00 -4.67299938e+00
      9.17829895e+00 5.85208321e+00 -9.41433239e+00 -7.12616086e-01
      -2.36293530e+00 -3.55895281e+00 -4.99185133e+00 9.22402477e+00
      6.31639719e+00 -9.50548077e+00 -4.28607076e-01 -1.02586019e+00
      -2.12147045e+00 -2.39793348e+00 -4.65802145e+00 -2.93312311e+00
      6.03181076e+00 -4.48510706e-01 -1.06716228e+00 -1.97744691e+00
      -2.36702776e+00 -4.54003954e+00 -2.92230177e+00 -5.76310015e+00
      -6.70051634e-01 -1.89679229e+00 -2.84468389e+00 -4.05034399e+00
      7.49754620e+00 5.04679394e+00 -8.63592529e+00 -5.92623591e-01
      -2.76587129e+00 -1.92626178e+00 -3.69920564e+00 -7.75616264e+00
      5.76682329e+00 6.51249647e+00 -3.76444250e-01 -1.08633304e+00
      -2.41409135e+00 -3.51574826e+00 6.77684307e+00 -4.20870876e+00
      6.54453945e+00 -6.95729673e-01 -2.19218898e+00 -2.78748488e+00
      -3.51043391e+00 -6.65951395e+00 -4.60698605e+00 8.07120323e+00
      -6.50847733e-01 -1.86144578e+00 -2.74916840e+00 -4.05990791e+00
      -7.46379471e+00 -4.99062872e+00 -8.71603584e+00 -4.84629542e-01
      -1.19943213e+00 -2.93257236e+00 -2.84731531e+00 -5.74133539e+00
      -3.44703174e+00 6.60112047e+00 -5.09324372e-01 -1.77809560e+00
      -1.66392601e+00 -3.03500104e+00 -5.73842859e+00 -4.59362125e+00
      5.43179655e+00 -5.77191114e-01 -1.52080584e+00 -3.20778728e+00
      -5.69501114e+00 -9.77002811e+00 6.47189188e+00 9.93983746e+00
      -6.89693630e-01 -1.89891410e+00 -4.19406843e+00 -5.09744978e+00
      -9.71003342e+00 -6.05762196e+00 9.59577274e+00 -5.77434182e-01
      -1.52411735e+00 -2.57185602e+00 -3.45045686e+00 -6.59718466e+00
      -4.25708246e+00 -6.62779522e+00 -5.41734159e-01 -1.35899246e+00
      -2.22669959e+00 -2.72554064e+00 -5.22065020e+00 -3.44332170e+00
      -5.74010611e+00 -4.32453036e-01 -1.09121144e+00 -1.74719131e+00
      -2.52562928e+00 -5.04685211e+00 -3.54185128e+00 -4.70248985e+00
      -6.35733545e-01 -1.88466215e+00 -3.18237948e+00 -4.58688545e+00
      8.56183624e+00 5.58309317e+00 -8.65719891e+00 -7.02551842e-01
      -2.53910351e+00 -3.63191390e+00 -4.05962706e+00 8.63308716e+00
      -5.33010769e+00 7.90894699e+00 -6.04078174e-01 -1.71667397e+00
      -3.03833771e+00 -3.71256208e+00 8.75559998e+00 5.07264996e+00
      7.08756971e+00 -6.63888693e-01 -2.42604470e+00 -2.76660037e+00
      -4.28602791e+00 -7.81231213e+00 -5.57570887e+00 -8.73453808e+00
      -6.10779405e-01 -1.64959991e+00 -2.60216761e+00 -3.27212811e+00
      -6.22454071e+00 -4.09698629e+00 -6.79213381e+00 -4.52926576e-01
      -1.10121369e+00 -2.02832699e+00 -2.47216654e+00 -4.75730610e+00
      -3.09185719e+00 5.13661480e+00 -4.87575024e-01 -1.21931052e+00
      -2.19927144e+00 -2.59028792e+00 -5.01179314e+00 -3.24577641e+00
      5.45316172e+00 -6.70367956e-01 -2.35117674e+00 -2.52759767e+00
      -3.66109300e+00 -6.88657713e+00 -6.01916599e+00 -6.92646074e+00
      -4.64818448e-01 -1.14496398e+00 -2.23545551e+00 -2.73049974e+00
      -5.31061363e+00 -3.45815134e+00 5.43489695e+00 -4.32759792e-01
      -1.05133629e+00 -2.29877925e+00 -2.78248477e+00 -5.44533348e+00
      -3.51751757e+00 5.50614786e+00 -5.45519352e-01 -1.32934582e+00
      -2.44188523e+00 -2.92423534e+00 -5.62145329e+00 -3.62515974e+00
      -6.20687437e+00 -3.16938579e-01 -9.01970863e-01 -1.32448137e+00
      -2.12705207e+00 -4.12333345e+00 -3.29424357e+00 3.92649293e+00
      -4.52563792e-01 -1.06597447e+00 -2.46092677e+00 -2.77652192e+00
      -5.40953827e+00 -3.33657479e+00 5.99298048e+00 -6.07780039e-01
      -2.34260607e+00 -1.80199885e+00 -2.73700094e+00 -5.07956743e+00
      -4.08613396e+00 -5.27850771e+00 -7.55339503e-01 -4.04346180e+00
      -3.73734617e+00 -4.68426609e+00 -8.89828682e+00 7.22159815e+00
      -9.21020126e+00 -6.93405807e-01 -2.26192951e+00 -3.18881965e+00
      -3.61725259e+00 -7.04178429e+00 -4.75153017e+00 7.52714109e+00
      -6.46448791e-01 -1.81467843e+00 -3.55954123e+00 -3.98042321e+00
      -8.25602341e+00 5.33743858e+00 -7.76927280e+00 -5.88387132e-01
      -1.52133477e+00 -2.75785327e+00 -3.23811531e+00 -6.31841278e+00
      -4.19366026e+00 -6.48627234e+00 -7.30557382e-01 -2.20464468e+00
      -3.77986431e+00 -4.87729168e+00 -9.14659309e+00 -5.99432087e+00
      9.68775368e+00 -5.17782986e-01 -1.71397936e+00 -2.04405546e+00
      -3.16999125e+00 -6.17759562e+00 -4.80946016e+00 -5.81433535e+00
      -5.31187773e-01 -2.13428497e+00 -3.64306951e+00 -2.74722099e+00
      6.04787159e+00 -3.94941187e+00 6.14958811e+00 -5.64028263e-01
      -1.40200198e+00 -3.04407740e+00 -3.78311563e+00 -8.55691147e+00
      5.48026371e+00 -7.19641399e+00 -5.99470615e-01 -1.56749129e+00
      -2.62668252e+00 -3.43860006e+00 -6.76204681e+00 -4.85444021e+00
      -6.53699017e+00 -4.45466191e-01 -1.38680565e+00 -1.55902863e+00
      -2.35691714e+00 -4.53048086e+00 -3.49623752e+00 4.41539907e+00
      -5.63218355e-01 -1.55575395e+00 -2.21157694e+00 -3.16037250e+00
      -5.90024185e+00 -4.05662298e+00 -6.17515469e+00 -3.79773587e-01
      -8.86749625e-01 -2.49147367e+00 -2.99050903e+00 -5.83533049e+00
      -3.69294643e+00 5.94148016e+00 -5.08670211e-01 -1.22821498e+00
      -2.77636862e+00 -3.43980789e+00 -7.25145054e+00 4.50287151e+00
      -6.55638409e+00 -7.39659309e-01 -3.57410789e+00 -3.88224745e+00
      -4.49486399e+00 8.84432507e+00 6.30130434e+00 8.77236080e+00
      -5.39966047e-01 -1.74561203e+00 -2.86265039e+00 -3.83125162e+00
      -7.27659702e+00 5.80117941e+00 7.39493227e+00 -4.85394299e-01
      -1.16267717e+00 -2.92880058e+00 -3.73188400e+00 7.14753151e+00
      4.35535336e+00 -7.30423594e+00 -6.89666629e-01 -1.96915972e+00
      -3.19286394e+00 -5.11925459e+00 9.28868771e+00 6.20622540e+00
      9.36533833e+00 -3.35000813e-01 -8.96051824e-01 -1.56885290e+00
      -1.99369335e+00 -3.81606531e+00 -2.51258039e+00 -4.15665245e+00
      -5.37598670e-01 -1.61439919e+00 -2.19326520e+00 -2.65902615e+00
      -5.13805103e+00 -3.57664633e+00 5.41777658e+00 -3.92561406e-01
      -1.19023597e+00 -2.24359655e+00 -2.94251776e+00 -5.53630304e+00
      -3.54298258e+00 6.76856709e+00 -6.28633738e-01 -2.39373350e+00
      -2.82004690e+00 -3.94023371e+00 -7.35697746e+00 -5.29930210e+00
      -7.71745729e+00 -5.41630566e-01 -1.42830181e+00 -1.93825042e+00
      -2.70273042e+00 -5.25558758e+00 -3.86727834e+00 -5.11442137e+00
      -5.58031082e-01 -1.48466170e+00 -1.97907150e+00 -2.73244381e+00
      -5.26143837e+00 -3.82348228e+00 -5.21813536e+00 -5.92265904e-01
      -2.05705690e+00 -2.78821635e+00 -3.41388559e+00 -6.51528072e+00
      -4.54450607e+00 7.83705187e+00 -4.50439632e-01 -1.59346271e+00
      -1.52929485e+00 -2.32778382e+00 4.59340048e+00 3.18470168e+00
      -4.30799294e+00 -4.50321227e-01 -1.19703555e+00 -2.53779006e+00
      -3.13663292e+00 6.17580748e+00 3.76338291e+00 -6.08270121e+00
      -4.73139822e-01 -1.30383170e+00 -1.71238220e+00 -2.57080770e+00
      -4.71447325e+00 -3.22285366e+00 5.72348118e+00 -6.54194772e-01
      -1.78715956e+00 -3.09468222e+00 -3.85508013e+00 -7.38995600e+00
      -5.04570055e+00 -7.63339949e+00 -5.40900528e-01 -1.46108687e+00
      -2.81672621e+00 -4.19309807e+00 7.73228550e+00 4.92366314e+00
      -8.09708595e+00 -7.71410882e-01 -3.61862850e+00 -3.55033469e+00
      -5.29651690e+00 9.56057549e+00 7.17680407e+00 9.75622082e+00
      -5.94884038e-01 -1.61328030e+00 -3.36382174e+00 -3.69621158e+00
      -7.24643326e+00 -4.57690716e+00 7.74179363e+00 -6.22645915e-01
      -1.65927732e+00 -3.04543543e+00 -3.66752815e+00 -7.03845787e+00
      -4.49742937e+00 7.61110878e+00 -5.46223879e-01 -1.62093902e+00
      -2.10097361e+00 -3.16533542e+00 -6.25200319e+00 -4.62089539e+00
      -5.82716608e+00 -5.23875833e-01 -1.29851055e+00 -1.95091808e+00
      -2.40559649e+00 -4.60169840e+00 -3.11883926e+00 -5.13531256e+00
      -7.03881800e-01 -2.48033071e+00 -2.92067194e+00 -4.00803804e+00
      8.04858685e+00 -5.44278526e+00 7.48654795e+00 -6.13530159e-01
      -1.52623820e+00 -3.88327670e+00 -4.70992184e+00 -8.97449970e+00
      -5.57598352e+00 -9.49642563e+00 -6.52527809e-01 -2.09195542e+00
      -2.83625436e+00 -3.63305330e+00 -6.88764715e+00 -4.68651867e+00
      7.39158964e+00 -3.47927332e-01 -8.72201264e-01 -1.86793506e+00
      -2.22627807e+00 -4.28253746e+00 -2.70311737e+00 -4.96552801e+00
      -6.33628845e-01 -1.68336940e+00 -4.51633739e+00 -4.11934996e+00
      -9.22035885e+00 -5.05834532e+00 8.42949772e+00 -5.00030518e-01
      -1.20153630e+00 -2.77893901e+00 -3.39864779e+00 -6.66167641e+00
      -4.27476072e+00 -6.61623240e+00 -6.07783854e-01 -1.63826036e+00
      -2.71989441e+00 -3.21124506e+00 -6.33082962e+00 -4.30448246e+00
      -6.32370377e+00 -5.87754786e-01 -1.81863511e+00 -2.10594082e+00
      -3.37038851e+00 -6.11169147e+00 -4.31024027e+00 7.02587938e+00
      -6.55027807e-01 -1.96088803e+00 -2.61581755e+00 -4.05927801e+00
      7.42457485e+00 5.16121101e+00 -7.84595633e+00 -4.13818300e-01
      -9.90046740e-01 -1.65005398e+00 -1.93514454e+00 -3.72789598e+00
      -2.43363905e+00 -5.30476093e+00 -4.67995495e-01 -1.86891091e+00
      -2.15807390e+00 -2.47605252e+00 -4.79761600e+00 -3.55724859e+00
      -5.63698339e+00 -2.27402851e-01 -5.51277220e-01 -1.48386431e+00
      -1.94996953e+00 -3.76836467e+00 -2.50368595e+00 -3.88084316e+00
      -6.86276674e-01 -2.97079659e+00 -2.86029506e+00 -4.72903633e+00
      -8.58233166e+00 -6.21735191e+00 -8.76367664e+00 -6.87871933e-01
      -2.53206110e+00 -2.66180921e+00 -3.68600225e+00 8.00871754e+00
      -5.28222990e+00 6.86066818e+00 -6.51657343e-01 -1.69810867e+00
      -3.47720242e+00 -3.89701056e+00 -7.59443903e+00 -4.76870060e+00
      8.21120071e+00 -6.67152941e-01 -1.87655401e+00 -2.88924146e+00
      -3.80968833e+00 -7.39122581e+00 -5.22811985e+00 7.24918842e+00
      -6.38934553e-01 -1.72997749e+00 -2.62120318e+00 -3.24045825e+00
      -6.18110561e+00 -4.20446014e+00 6.84685516e+00 -5.46271086e-01
      -1.38846290e+00 -2.03796506e+00 -2.63582277e+00 -4.98423767e+00
      -3.37441730e+00 -5.61598873e+00 -4.28279936e-01 -9.94363487e-01
      -2.90346098e+00 -3.56102824e+00 -7.06643677e+00 -4.54436731e+00
      -6.86536741e+00 -5.78409195e-01 -2.31634808e+00 -3.33807182e+00
      -2.45276737e+00 5.45209265e+00 -3.61115742e+00 5.55809402e+00
      -3.38565916e-01 -8.23344231e-01 -1.80423474e+00 -1.85252237e+00
      -3.68091202e+00 -2.26430607e+00 -5.82050562e+00 -4.90542978e-01
      -1.15023613e+00 -2.32422900e+00 -2.75037813e+00 -5.29088163e+00
      -3.33730888e+00 -6.20446110e+00 -6.72286332e-01 -2.03281927e+00
      -2.57403064e+00 -3.50633550e+00 -7.57228041e+00 4.95043802e+00
      -6.54828787e+00 -5.63003838e-01 -1.41489005e+00 -2.49772286e+00
      -2.97697878e+00 -5.71629143e+00 -3.69078708e+00 -6.73465061e+00
      -7.34415710e-01 -2.28853726e+00 -3.09969163e+00 -4.23039818e+00
      -7.97226906e+00 -5.42600584e+00 8.14292431e+00 -7.77467549e-01
      -2.94345498e+00 -5.37514448e+00 -5.52688026e+00 -9.96185684e+00
      -7.11565304e+00 9.97822857e+00 -7.78038561e-01 -2.78732085e+00
      -3.64142776e+00 -5.58470201e+00 9.78954697e+00 6.98834181e+00
      9.95239258e+00 -7.35901356e-01 -2.20699811e+00 -3.21236658e+00
      -4.55211830e+00 -8.83240891e+00 -6.47113609e+00 -8.45429993e+00
      -7.63529539e-01 -2.67276978e+00 -3.22202873e+00 -4.89407110e+00
      -9.53676224e+00 6.63456583e+00 -8.92076206e+00 -5.70623159e-01
      -1.93624067e+00 -3.26073241e+00 -3.33329153e+00 -7.14552259e+00
      -5.31177235e+00 -6.65129852e+00 -6.56208515e-01 -2.69320416e+00
      -4.00600290e+00 -3.28863358e+00 -6.98943186e+00 -4.90634441e+00
      7.26411486e+00 -5.71490228e-01 -2.07433200e+00 -2.51987624e+00
      -2.85613489e+00 -5.54420376e+00 -3.93974614e+00 -7.26431131e+00
      -4.77123976e-01 -1.16134119e+00 -1.91755497e+00 -2.27330875e+00
      -4.37095547e+00 -2.86498046e+00 -5.36542034e+00 -6.05969846e-01
      -3.03752017e+00 -2.51051617e+00 -5.05553389e+00 9.38810349e+00
      6.86133862e+00 8.81904793e+00 -6.79698706e-01 -2.04829049e+00
      -3.04273105e+00 -3.58045888e+00 -6.90663624e+00 -4.60617399e+00
      7.47947502e+00 -7.04018593e-01 -1.98098278e+00 -3.05593276e+00
      -3.99609756e+00 -7.59004688e+00 -5.07330561e+00 7.80023623e+00
      -7.70537496e-01 -3.14196658e+00 -3.19167447e+00 -5.34570551e+00
      9.46483612e+00 7.00636339e+00 -9.97163486e+00 -6.26690686e-01
      -2.48285437e+00 -3.00870013e+00 -5.97098827e+00 -9.95378780e+00
      -7.37813711e+00 9.87703037e+00 -6.75113380e-01 -1.98849189e+00
      -2.78809547e+00 -3.55278111e+00 -6.74254084e+00 -4.62044239e+00
      -7.25482321e+00 -7.27500975e-01 -2.71433258e+00 -2.58967924e+00
      -4.41448736e+00 -8.47333717e+00 6.80119085e+00 -7.92920589e+00
      -7.22860694e-01 -2.60315681e+00 -2.59981251e+00 -4.04015875e+00
      -7.59080887e+00 -5.62586832e+00 -7.45013237e+00 -6.55687094e-01
      -1.87914753e+00 -2.51117587e+00 -3.51179600e+00 -6.60775375e+00
      -4.55593491e+00 -6.76854753e+00 -5.25587022e-01 -1.54715216e+00
      -2.20030093e+00 -2.78696704e+00 -5.38037825e+00 -3.65464568e+00
      5.49741268e+00 -6.12917006e-01 -2.34385562e+00 -2.70335531e+00
      -3.24072027e+00 -6.25460577e+00 -4.45931530e+00 6.59035254e+00
      -5.96439064e-01 -1.82227802e+00 -2.27129316e+00 -3.11519146e+00
      -5.91769171e+00 -4.14046478e+00 6.00982857e+00 -7.48688161e-01
      -2.50303173e+00 -3.02818990e+00 -4.40247059e+00 -8.39199448e+00
      6.92220879e+00 -8.17926407e+00 -5.41597724e-01 -1.45161963e+00
      -2.44587207e+00 -3.16584754e+00 -6.10426092e+00 -3.93856525e+00
      -6.14167881e+00 -5.08735538e-01 -1.32001019e+00 -2.35071445e+00
      -2.99121451e+00 -5.84050179e+00 -3.80054998e+00 -5.78799629e+00
      -6.68570340e-01 -1.87368190e+00 -3.68824196e+00 -3.94613671e+00
      -7.83699989e+00 -4.88394117e+00 8.02201271e+00 -6.93126142e-01
      -1.95778656e+00 -3.83433676e+00 -5.80800867e+00 -9.99779034e+00
      6.78682899e+00 9.90840816e+00 -6.69920683e-01 -1.95971179e+00
      -2.51604271e+00 -3.33812380e+00 -6.27051973e+00 -4.35050488e+00
      -7.06981754e+00 -7.45261490e-01 -2.77426481e+00 -3.03907347e+00
      -5.26106310e+00 9.62581253e+00 -7.25225067e+00 -9.33428097e+00
      -7.44192183e-01 -4.88234854e+00 -2.83516073e+00 -4.74462605e+00
      8.53794956e+00 7.50864697e+00 -9.02756691e+00 -6.67925358e-01
      -1.71247137e+00 -3.59264660e+00 -4.46602154e+00 -8.60726547e+00
      -5.53092098e+00 -8.64891148e+00 -7.04607666e-01 -2.49337053e+00
      -4.04386663e+00 -3.71709418e+00 -7.70595598e+00 -4.96786022e+00
      7.79432917e+00 -7.69220829e-01 -3.44504380e+00 -3.58466101e+00
      -5.17423964e+00 9.49251747e+00 -7.52988768e+00 9.56849670e+00
      -7.65842021e-01 -3.76002383e+00 -3.42109537e+00 -5.22074938e+00
      9.73213291e+00 -8.12535191e+00 9.42674160e+00 -6.49718583e-01
      -1.72572553e+00 -2.60243845e+00 -3.20417428e+00 -6.10754871e+00
      -4.07163095e+00 7.72795057e+00 -6.16435945e-01 -1.57295871e+00
      -2.46979642e+00 -2.98562670e+00 -5.71338415e+00 -3.77542305e+00
      7.46452713e+00 -5.52404344e-01 -1.90301347e+00 -2.25474668e+00
      -3.04416370e+00 -7.26104307e+00 -4.14866924e+00 5.69375610e+00
      -6.81237340e-01 -2.06939721e+00 -3.45339274e+00 -4.07649708e+00
      -7.92850399e+00 -5.53263664e+00 8.06954479e+00 -6.80392325e-01
      -1.83793032e+00 -2.89412212e+00 -3.64198923e+00 -6.91393805e+00
      -4.57168150e+00 -7.76385689e+00 -5.30327618e-01 -1.58871591e+00
      -2.12765002e+00 -3.24654245e+00 6.35960913e+00 4.47102165e+00
      -5.96649075e+00 -6.22157574e-01 -2.67828321e+00 -2.17071342e+00
      -3.46239543e+00 6.56432581e+00 -4.82802057e+00 6.34674406e+00
      -4.95774359e-01 -1.33647764e+00 -2.07326841e+00 -2.39028001e+00
      -4.63888216e+00 -3.06404591e+00 -5.18574572e+00 -6.28704309e-01
      -1.63812327e+00 -2.83394647e+00 -3.46320963e+00 -6.62036085e+00
      -4.28756428e+00 -7.31252289e+00 -5.80732167e-01 -1.77980757e+00
      -2.23321581e+00 -3.16079116e+00 5.85804129e+00 4.08209610e+00
      -7.30340528e+00 -6.80071950e-01 -1.91448200e+00 -2.64386511e+00
      -3.50801134e+00 -6.62333584e+00 -4.55561256e+00 -6.97272730e+00
      -4.90455702e-02 -3.70837837e-01 -3.72120291e-01 -9.57858026e-01
      -1.63866997e+00 -1.17591870e+00 -2.19944739e+00 -4.75194961e-01
      -1.11518979e+00 -3.27465248e+00 -4.06179476e+00 7.99172258e+00
      4.79873753e+00 7.80278444e+00 -4.69324768e-01 -1.09314680e+00
      -3.26753259e+00 -4.14805031e+00 7.88367081e+00 4.70624018e+00
      -8.28435516e+00 -6.73900783e-01 -2.23373389e+00 -3.37355900e+00
      -3.46032619e+00 -7.06310940e+00 -4.60682821e+00 -6.99660778e+00
      -4.63487864e-01 -1.09379160e+00 -2.83474660e+00 -3.52176404e+00
      -7.17356491e+00 -4.91019106e+00 6.72573376e+00 -5.98221302e-01
      -1.47866559e+00 -3.09314442e+00 -3.42699933e+00 -6.68977690e+00
      -4.17924452e+00 7.62253141e+00 -6.71567321e-01 -1.95077002e+00
      -2.93362856e+00 -3.49860620e+00 -6.72308207e+00 -4.47632933e+00
      -7.41929531e+00 -6.12878680e-01 -1.73652780e+00 -2.26291227e+00
      -2.69908071e+00 -5.18169832e+00 -3.57298923e+00 -6.24337244e+00
      -5.24770260e-01 -1.45559084e+00 -1.80386150e+00 -2.30924082e+00
      -4.38194370e+00 -3.10241175e+00 -4.93806696e+00 -7.36364722e-01
      -2.49270177e+00 -3.64906788e+00 -4.26666498e+00 -8.26306629e+00
      -5.67040443e+00 8.56547260e+00 -6.58835173e-01 -2.44143891e+00
      -2.66887641e+00 -3.75729585e+00 8.03225708e+00 -5.64097786e+00
      6.97157907e+00 -7.47767329e-01 -3.05006433e+00 -3.22904301e+00
      -5.04833078e+00 -9.48460960e+00 -6.63053417e+00 -9.14939308e+00
      -4.86785442e-01 -1.40714669e+00 -1.79290736e+00 -2.60464835e+00
      -4.81672430e+00 -3.30828643e+00 -5.41646910e+00 -6.65942013e-01
      -1.78016889e+00 -3.65656471e+00 -4.63203335e+00 -8.86783314e+00
      -5.54186916e+00 -8.91847897e+00 -5.91092587e-01 -1.66794789e+00
      -2.11967945e+00 -2.32529545e+00 -4.55020905e+00 -3.19308424e+00
      -5.52476072e+00 -7.11859286e-01 -2.57093000e+00 -3.26821899e+00
      -4.06835699e+00 7.94751310e+00 5.41670418e+00 -7.83468485e+00
      -7.43676007e-01 -2.47592926e+00 -4.53995037e+00 -5.09047747e+00
      -9.64928341e+00 -6.32899904e+00 9.99348450e+00 -5.21453381e-01
      -1.47838795e+00 -3.23246217e+00 -3.20864034e+00 -6.42915058e+00
      -3.94864488e+00 -8.15168381e+00 -7.49428153e-01 -2.74066281e+00
      -3.13293815e+00 -4.42095566e+00 -8.19659710e+00 -5.84348774e+00
      8.95485115e+00 -6.75236404e-01 -1.89515913e+00 -3.08701873e+00
      -4.07430220e+00 -7.74455452e+00 -5.24848509e+00 7.88248158e+00
      -7.49110401e-01 -2.77292299e+00 -3.48763824e+00 -4.93688107e+00
      -9.50160313e+00 7.32031775e+00 -9.11016560e+00 -6.45579636e-01
      -2.06349540e+00 -2.30574894e+00 -3.03082848e+00 -5.70353794e+00
      -4.06258535e+00 -6.54574442e+00 -5.77647567e-01 -1.43513894e+00
      -3.03824973e+00 -4.27217770e+00 -8.21574688e+00 -5.76301289e+00
      7.98747921e+00 -6.91953361e-01 -2.96345496e+00 -2.61078954e+00
      -4.27188301e+00 7.81139183e+00 5.81421041e+00 7.92433023e+00
      -6.48371816e-01 -2.76853800e+00 -2.14099979e+00 -3.57850146e+00
      -6.55457020e+00 -5.21029186e+00 6.62897062e+00 -5.99655449e-01
      -1.58901215e+00 -2.33925033e+00 -2.92386889e+00 -5.56155205e+00
      -3.76425266e+00 -6.33270884e+00 -7.49746680e-01 -2.70426416e+00
      -3.25431800e+00 -5.15335941e+00 -9.46202850e+00 6.99679565e+00
      -9.33292770e+00 -6.77091241e-01 -2.01105642e+00 -2.90096831e+00
      -3.41039324e+00 -6.56655550e+00 -4.42951536e+00 -7.82833338e+00
      -5.85963428e-01 -2.07729030e+00 -2.29950690e+00 -3.10192370e+00
      -5.80299473e+00 -4.15513372e+00 -7.17885542e+00 -6.30014956e-01
      -1.76638639e+00 -3.29889154e+00 -5.14722633e+00 -9.73215389e+00
      6.14591932e+00 9.28594589e+00 -6.37641847e-01 -1.82989609e+00
      -3.11153245e+00 -3.62722301e+00 -7.23196888e+00 -4.68421888e+00
      -7.08535385e+00 -6.26975656e-01 -1.82784438e+00 -3.11007357e+00
      -4.39166164e+00 8.13771629e+00 5.70602942e+00 9.19904232e+00</data></samples>
  <responses type_id="opencv-matrix">
    <rows>277</rows>
    <cols>1</cols>
    <dt>f</dt>
    <data>
      0. 0. 0. 0. 0. 0. 0. 0. 0. 0. 0. 0. 0. 0. 0. 0. 0. 0. 0. 0. 0. 0.
      0. 0. 0. 0. 0. 0. 0. 0. 0. 0. 0. 0. 0. 0. 0. 0. 0. 0. 0. 0. 0. 0.
      0. 0. 0. 0. 0. 0. 0. 0. 0. 0. 0. 0. 0. 0. 0. 0. 0. 0. 0. 0. 0. 0.
      0. 0. 0. 0. 0. 0. 0. 0. 0. 0. 0. 0. 0. 0. 0. 0. 0. 0. 0. 0. 0. 0.
      0. 0. 0. 0. 0. 0. 0. 0. 0. 0. 0. 0. 0. 0. 0. 0. 0. 0. 0. 0. 0. 0.
      0. 0. 0. 0. 0. 0. 0. 1. 1. 1. 1. 1. 1. 1. 1. 1. 1. 1. 1. 1. 1. 1.
      1. 1. 1. 1. 1. 1. 1. 1. 1. 1. 1. 1. 1. 1. 1. 1. 1. 1. 1. 1. 1. 1.
      1. 1. 1. 1. 1. 1. 1. 1. 1. 1. 1. 1. 1. 1. 1. 1. 1. 1. 1. 1. 1. 1.
      1. 1. 1. 1. 1. 1. 1. 1. 1. 1. 1. 1. 1. 1. 1. 1. 1. 1. 1. 1. 1. 1.
      1. 1. 1. 1. 1. 1. 1. 1. 1. 1. 1. 1. 1. 1. 1. 1. 1. 1. 1. 1. 1. 1.
      1. 1. 1. 1. 1. 1. 1. 1. 1. 1. 1. 1. 1. 1. 1. 1. 1. 1. 1. 1. 1. 1.
      1. 1. 1. 1. 1. 1. 1. 1. 1. 1. 1. 1. 1. 1. 1. 1. 1. 1. 1. 1. 1. 1.
      1. 1. 1. 1. 1. 1. 1. 1. 1. 1. 1. 1. 1.</data></responses></opencv_ml_knn>
</opencv_storage>
